Y -0.045100 -0.040871 0.104729 -0.010760 -0.096012 0.062309 0.085163 0.047299 -0.013899 -0.009540
S 0.021372 -0.028282 -0.002988 0.119272 -0.111020 0.043159 0.120527 -0.122146 0.116320 -0.049742
D -0.086842 -0.152392 0.037804 -0.122701 0.022058 0.016349 0.052533 0.009493 -0.057303 0.144372
N -0.056025 -0.107304 -0.019085 -0.090734 0.001714 -0.054476 -0.043325 -0.082320 -0.003121 0.076053
H 0.033057 -0.084553 0.007165 -0.030347 -0.061641 -0.041153 0.011258 -0.009545 0.066599 -0.047910
A -0.031067 -0.087057 0.065266 -0.093914 -0.020561 -0.067593 0.047351 -0.147726 -0.041984 0.045332
F 0.059394 0.150991 -0.001782 0.032247 0.085306 0.019402 -0.175370 0.141873 -0.114020 0.064048
T -0.086081 -0.200781 0.026925 -0.180789 -0.056976 -0.081542 0.045923 -0.119621 -0.042196 0.038967
P -0.015182 -0.036389 -0.078778 0.098927 -0.025785 0.008836 -0.006542 0.007201 0.005869 0.028039
C -0.012022 -0.105422 -0.006822 -0.120215 -0.001133 -0.005645 0.082953 -0.014225 0.023959 0.010733
G 0.056089 0.107887 -0.070652 -0.043413 0.082053 -0.006492 -0.077372 -0.013120 -0.050610 0.030786
L 0.031285 0.158734 -0.098139 0.067037 -0.018554 -0.110999 -0.097447 0.052694 -0.051028 -0.007879
V -0.024281 0.031343 -0.027318 -0.048536 0.026889 0.011693 -0.023520 -0.028813 0.008714 0.000498
R 0.083256 0.298133 -0.076414 0.185242 0.169964 -0.112590 -0.208129 0.089963 -0.046459 -0.039842
I -0.065156 -0.129807 -0.004754 -0.252483 -0.009183 -0.005882 -0.022871 0.044871 -0.065064 0.151831
Q -0.098973 -0.023345 0.001502 -0.126941 -0.024685 -0.030607 -0.051490 -0.018224 -0.064911 -0.043659
E -0.125925 -0.049941 0.054500 -0.184791 0.003039 -0.054822 0.069328 -0.032089 -0.023464 0.073389
K -0.039503 -0.089900 0.045614 -0.091283 -0.070190 0.015635 0.109853 -0.026175 0.048102 -0.082506
W 0.037360 -0.070490 -0.073822 -0.159396 -0.066732 -0.070013 0.061979 -0.141041 0.014719 0.050242
M 0.116698 0.383037 -0.114743 0.243037 0.151073 -0.077995 -0.262503 0.160201 -0.084862 -0.044696
<unk> -0.012382 -0.003820 -0.011590 -0.040527 -0.001019 -0.027121 -0.014085 -0.010073 -0.018732 0.019426
